tree
version=v2
num_class=1
num_tree_per_iteration=1
label_index=0
max_feature_idx=27
objective=binary sigmoid:1
feature_names=feature_0 feature_1 feature_2 feature_3 feature_4 feature_5 feature_6 feature_7 feature_8 feature_9 feature_10 feature_11 feature_12 feature_13 feature_14 feature_15 feature_16 feature_17 feature_18 feature_19 feature_20 feature_21 feature_22 feature_23 feature_24 feature_25 feature_26 feature_27
feature_infos=[0.27500000000000002:6.6950000000000003] [-2.4169999999999998:2.4300000000000002] [-1.7430000000000001:1.7430000000000001] [0.019:5.7000000000000002] [-1.7430000000000001:1.7430000000000001] [0.159:4.1900000000000004] [-2.9410000000000003:2.9700000000000002] [-1.7409999999999999:1.7409999999999999] [0:2.173] [0.19:5.1929999999999996] [-2.9039999999999999:2.9089999999999998] [-1.742:1.7430000000000001] [0:2.2149999999999999] [0.26400000000000001:6.5229999999999997] [-2.7280000000000002:2.7269999999999999] [-1.742:1.742] [0:2.548] [0.36499999999999999:6.0679999999999996] [-2.4950000000000001:2.496] [-1.74:1.7430000000000001] [0:3.1019999999999999] 1:0:2:3:4:5:6:7 [0.41899999999999998:7.3920000000000003] [0.46100000000000002:3.6819999999999999] [0.38400000000000001:6.5829999999999993] [0.093000000000000013:7.8600000000000003] [0.38900000000000001:4.5430000000000001] [0.48899999999999999:4.3159999999999998]
tree_sizes=2465 2506 2500 2508 2518 2477 2511 2496 2493 2510

Tree=0
num_leaves=31
num_cat=0
split_feature=25 25 5 27 26 25 27 0 25 22 27 9 3 22 26 27 25 5 24 3 9 3 26 25 24 24 0 10 13 27
split_gain=266.461 163.771 92.2812 100.696 85.544 59.4473 40.5678 33.8246 29.6634 25.4092 25.3887 24.1387 21.0609 20.1115 19.6618 24.028 19.1048 17.9496 17.7839 17.1055 15.4979 15.0838 14.2544 17.12 13.7767 15.9013 13.5992 12.9468 12.6522 12.0298
threshold=1.2045000000000001 0.61750000000000005 0.86950000000000016 0.90250000000000019 0.77650000000000008 0.96550000000000014 0.90450000000000019 1.7305000000000004 1.8325000000000002 1.0545000000000002 0.96150000000000013 1.0365000000000002 2.6165000000000007 0.75250000000000006 0.86950000000000016 0.79950000000000021 0.98950000000000016 0.89650000000000007 0.64150000000000007 1.6175000000000004 0.9265000000000001 1.3345000000000002 0.85650000000000015 0.84250000000000014 1.0755000000000001 1.4775000000000003 1.1865000000000003 -0.11849999999999999 1.3085000000000002 0.82650000000000012
decision_type=2 2 2 2 2 2 2 2 2 2 2 2 2 2 2 2 2 2 2 2 2 2 2 2 2 2 2 2 2 2
left_child=1 11 4 22 18 6 14 12 9 10 17 19 16 -12 15 -6 -5 20 -3 28 -2 -8 23 -4 -9 -26 -25 -22 -1 -13
right_child=8 2 3 7 5 -7 21 24 -10 -11 13 29 -14 -15 -16 -17 -18 -19 -20 -21 27 -23 -24 26 25 -27 -28 -29 -30 -31
leaf_value=0.095568361038400218 0.039315464571393927 0.13358130275553737 0.18824871632303683 0.1627624753961264 0.16639240326455096 0.10655387721267304 0.13999923685926491 0.059594721918433805 0.057402369772807882 0.11894692045622379 0.13890110332917907 0.15194845455790396 0.05716121103678902 0.049229768163280091 0.18477818210443683 0.099010743240849353 0.12471014980619469 0.11836519102611735 0.07416026150200114 0.059446337108577413 0.14893933571596379 0.092807179104147083 0.19603191830303615 0.15474216772692906 0.16390924324747552 0.068818513163377754 0.064809388093386919 0.06597526874225855 0.14100997567934392 0.10797976249488678
leaf_count=644 72 62 170 427 211 352 222 66 333 258 28 122 25 243 359 71 192 206 274 123 35 98 591 86 41 31 21 41 68 128
internal_value=0 0.246122 0.46823 0.803267 0.132991 0.363867 0.621916 0.281737 -0.814029 -0.621833 -0.840229 -0.429211 0.474653 -1.30182 0.912809 0.516838 0.547477 -0.486865 -0.769215 -0.592752 -1.0192 0.0392208 1.27313 0.898042 -0.618538 -0.0123646 0.270124 -0.388064 -0.473547 0.117017
internal_count=5600 4384 3299 1650 1649 1313 961 782 1216 883 625 1085 644 271 641 282 619 354 336 835 148 320 868 277 138 72 107 76 712 250
shrinkage=1


Tree=1
num_leaves=31
num_cat=0
split_feature=25 25 26 5 26 25 22 9 5 22 3 13 24 24 9 24 2 3 19 25 26 22 19 3 26 9 14 24 26 6
split_gain=241.7 176.684 89.6163 49.0818 41.3168 39.4201 36.5644 32.8754 23.7397 21.6276 15.4462 15.3276 13.938 13.9175 13.6014 13.5295 20.3334 12.9241 12.6838 12.0889 12.0761 12.0267 12.022 13.2076 11.8201 11.774 11.5595 11.4878 15.5347 10.653
threshold=1.0675000000000001 0.66550000000000009 0.8055000000000001 0.82050000000000012 1.0825000000000002 1.8325000000000002 1.0375000000000003 1.1375000000000002 0.86950000000000016 0.77950000000000019 2.4510000000000005 1.2955000000000003 0.66250000000000009 0.71850000000000014 1.2475000000000003 1.3295000000000001 1.0880000000000003 1.1435000000000002 1.2315000000000003 0.98450000000000015 0.73350000000000015 0.82350000000000012 1.2875000000000003 0.3615000000000001 0.84350000000000014 1.8455000000000001 0.81250000000000011 0.97750000000000015 0.99350000000000016 -0.54649999999999987
decision_type=2 2 2 2 2 2 2 2 2 2 2 2 2 2 2 2 2 2 2 2 2 2 2 2 2 2 2 2 2 2
left_child=1 7 3 26 8 6 9 11 14 -2 25 13 -11 -1 17 16 22 19 -9 24 -15 -22 23 -8 -4 -6 -3 28 -14 -5
right_child=5 2 4 29 10 -7 15 18 -10 12 -12 -13 27 20 -16 -17 -18 -19 -20 -21 21 -23 -24 -25 -26 -27 -28 -29 -30 -31
leaf_value=-0.010300734056099013 0.0030918733958899066 -0.04350162778586604 0.0067973264493757461 -0.008085309840076358 0.012823765167906859 -0.062680697803280019 0.031632145537051758 0.027035079205045068 0.057145372793506649 0.013736046313204065 -0.067997348200412921 0.011290446351300587 -0.038116619214668836 -0.057668186316096041 0.068944294899093886 0.034090039530450277 0.044970470476595144 0.0058781681681790536 -0.039982960908790527 -0.0037949488266837343 0.00088775000323056 -0.036718490011393178 0.042324608155774893 -0.037571538271803907 0.050065132575825892 0.062505783944115989 0.0047810134707173208 -0.032247142734526467 -0.079690077075224991 0.048516138700158293
leaf_count=306 123 251 77 46 507 333 32 202 841 42 22 112 188 187 93 93 57 191 33 65 113 348 27 205 363 53 62 332 173 123
internal_value=0 0.2795 0.572973 -0.209851 0.743995 -0.640902 -0.480159 -0.326434 0.90806 -0.715944 0.285588 -0.47581 -0.845924 -0.558021 0.658198 0.00893546 -0.186028 0.561917 0.352415 0.730121 -0.724244 -0.550063 -0.420295 -0.56459 0.849691 0.350415 -0.678783 -0.913777 -1.16102 0.662249
internal_count=5600 3995 2694 482 2212 1605 1272 1301 1630 858 582 1066 735 954 789 414 321 696 235 505 648 461 264 237 440 560 313 693 361 169
shrinkage=0.05


Tree=2
num_leaves=31
num_cat=0
split_feature=27 26 22 24 5 5 22 22 27 27 26 3 27 26 0 24 27 8 5 23 3 2 0 24 24 2 5 6 6 9
split_gain=159.651 173.332 76.7151 107.136 44.1223 39.5251 21.9233 20.4333 18.2265 17.4209 17.264 14.7291 14.5033 13.5987 12.6567 12.519 12.1256 11.6788 15.0071 12.764 11.6267 12.0025 10.9857 10.7358 18.467 10.7146 10.4537 10.26 10.32 9.44609
threshold=0.90450000000000019 0.81150000000000011 1.0465000000000002 1.0755000000000001 0.82050000000000012 0.90050000000000008 1.0605000000000002 0.76250000000000007 0.84050000000000014 1.1225000000000003 0.89850000000000019 2.4510000000000005 1.0885000000000002 0.86050000000000015 1.6475000000000002 1.0405000000000002 0.80650000000000011 1.0000000180025095e-35 1.7625000000000002 0.98750000000000016 1.6295000000000002 0.52350000000000019 0.70450000000000013 1.3095000000000003 0.8055000000000001 -1.5134999999999998 1.6515000000000002 -1.8214999999999997 1.3790000000000002 1.1935000000000002
decision_type=2 2 2 2 2 2 2 2 2 2 2 2 2 2 2 2 2 2 2 2 2 2 2 2 2 2 2 2 2 2
left_child=1 4 3 12 14 6 8 -5 13 26 -10 17 -2 -3 29 -12 25 18 19 -11 -9 -22 -15 24 -19 -6 27 -4 -29 -1
right_child=2 5 9 7 16 -7 -8 20 10 11 15 -13 -14 22 -16 -17 -18 23 -20 -21 21 -23 -24 -25 -26 -27 -28 28 -30 -31
leaf_value=-0.034155995016380489 -0.051790369366182989 0.0044728177612512968 -0.05697873445614221 0.032429175319730594 -0.048970150163334607 0.049000849466304994 0.051889893339959817 -0.0070392710273586376 -0.053504088199221117 0.026224436034278528 -0.017265484990750087 -0.07316392558836865 -0.08255849708085812 0.010462531936424057 0.019253110144024338 0.035760666842181738 -0.027991901020518514 0.033415765960605928 0.048406208810428945 -0.024019755895592822 -0.017695595223017321 -0.075591688178384506 0.046602766207869746 -0.0014381822119344694 -0.061471648472619461 0.025007519941969515 0.077534160211350581 0.021448774119830268 -0.036276204014730772 0.024239016880294839
leaf_count=704 406 244 20 108 21 923 186 484 65 83 99 34 247 126 52 82 62 26 72 131 100 56 259 141 99 310 27 370 34 29
internal_value=0 0.312313 -0.37057 -0.676145 -0.295682 0.675454 0.411413 -0.158268 0.278467 0.0429447 -0.184474 -0.184866 -1.2687 0.459758 -0.569404 0.134507 0.253417 -0.105885 0.175538 -0.0906795 -0.294202 -0.769524 0.695078 -0.407942 -0.835216 0.406094 0.339353 0.26238 0.331802 -0.637092
internal_count=5600 3162 2438 1401 1178 1984 1061 748 875 1037 246 586 653 629 785 181 393 552 286 214 640 156 385 266 125 331 451 424 404 733
shrinkage=0.05


Tree=3
num_leaves=31
num_cat=0
split_feature=25 25 5 27 26 25 27 0 3 3 24 24 27 15 25 6 17 9 9 27 0 9 22 24 26 25 9 22 1 17
split_gain=214.039 127.289 75.0648 89.7983 65.2577 58.8255 34.0714 28.4703 21.1151 18.5109 17.9533 17.1501 29.5944 18.8569 16.8401 16.0175 15.3829 14.9983 14.6348 15.0916 15.6382 20.738 14.3841 14.1388 13.2263 15.9332 12.6194 12.4899 12.2672 12.022
threshold=1.2450000000000003 0.59250000000000014 0.87650000000000006 0.90250000000000019 0.77650000000000008 0.96550000000000014 0.85750000000000004 1.7305000000000004 1.8535000000000004 2.0310000000000001 0.64150000000000007 1.3235000000000003 1.0245000000000002 -1.5714999999999997 0.99250000000000005 1.1275000000000002 1.6815000000000002 1.0415000000000003 1.6725000000000001 0.90450000000000019 0.96350000000000013 0.76250000000000007 1.1135000000000004 1.0895000000000004 0.85650000000000015 0.94550000000000012 1.2680000000000005 1.0025000000000002 1.7720000000000002 1.2495000000000003
decision_type=2 2 2 2 2 2 2 2 2 2 2 2 2 2 2 2 2 2 2 2 2 2 2 2 2 2 2 2 2 2
left_child=1 18 4 24 10 6 -6 9 11 14 -3 12 13 -2 -5 23 -13 -7 19 20 21 -1 -15 -9 25 -4 28 -21 -8 -23
right_child=8 2 3 7 5 17 26 15 -10 -11 -12 16 -14 22 -16 -17 -18 -19 -20 27 -22 29 -24 -25 -26 -27 -28 -29 -30 -31
leaf_value=-0.052838135122031983 0.067327567051910717 0.012545078600408033 0.050258908508042738 0.036769427500978481 0.044585006181029091 -0.029367002834117247 0.0051577759377488923 -0.076204977910841701 -0.086878029085526609 -0.027525204923811993 -0.0428366543858682 -0.021531212566068155 -0.064344127529006687 -0.036112837690524834 0.0010081991369034508 0.053708273112177379 0.049180612252820811 0.014820358184345026 0.039827199212845318 -0.063545194793032223 0.00085536581899086988 -0.018032048507286454 0.018028174110985395 -0.0085353570734576119 0.065613719087218206 -0.011575603885787758 0.04946410316157826 -0.019859824732034872 -0.070283505024388057 0.047364689223270959
leaf_count=189 21 73 242 413 560 290 362 63 83 75 300 185 329 415 195 20 37 105 38 146 309 147 56 61 596 51 62 119 23 35
internal_value=0 0.21125 0.391624 0.692289 0.102792 0.301926 0.560404 0.217663 -0.766035 0.388928 -0.64053 -0.688642 -0.822194 -0.511112 0.505185 -0.591865 -0.19494 -0.352583 -0.424786 -0.473668 -0.315628 -0.592814 -0.593887 -0.859986 1.13902 0.789112 0.147835 -0.878815 0.012748 -0.109584
internal_count=5600 4474 3491 1716 1775 1402 1007 827 1126 683 373 1043 821 492 608 144 222 395 983 945 680 371 471 124 889 293 447 265 385 182
shrinkage=0.05


Tree=4
num_leaves=31
num_cat=0
split_feature=25 25 26 27 5 26 25 25 22 27 9 5 0 3 24 22 24 27 26 24 13 24 2 27 22 24 22 19 27 24
split_gain=194.691 142.122 71.649 76.305 38.3324 37.6366 32.0127 31.6235 30.7782 28.8874 26.5651 19.7605 19.6466 18.4184 18.2145 32.4541 18.2209 13.8787 23.3196 13.2278 12.3708 12.1469 17.5795 13.6727 11.9512 12.7674 11.4437 11.8605 11.4103 10.8825
threshold=1.0675000000000001 0.66550000000000009 0.77650000000000008 0.90450000000000019 0.82050000000000012 0.85850000000000015 0.83950000000000014 1.8325000000000002 1.0375000000000003 1.0025000000000002 1.1375000000000002 1.1885000000000001 1.3185000000000002 1.7675000000000003 1.1805000000000001 1.0215000000000003 0.99950000000000017 0.85250000000000015 0.79050000000000009 0.98950000000000016 1.3735000000000004 1.3295000000000001 1.0880000000000003 1.1575000000000002 1.1665000000000003 1.0405000000000002 1.1035000000000001 -1.1714999999999998 0.82650000000000012 1.5145000000000002
decision_type=2 2 2 2 2 2 2 2 2 2 2 2 2 2 2 2 2 2 2 2 2 2 2 2 2 2 2 2 2 2
left_child=1 10 4 5 -3 6 -4 8 9 11 17 -2 -8 14 15 16 -5 18 26 -13 -20 22 23 -10 25 -19 27 -1 -12 -11
right_child=7 2 3 13 -6 -7 12 -9 21 29 28 19 -14 -15 -16 -17 -18 24 20 -21 -22 -23 -24 -25 -26 -27 -28 -29 -30 -31
leaf_value=0.0063171393063998719 -0.02856991413064194 -0.038000825330413351 0.047965976374685068 -0.050410867676449679 0.030596900733977667 0.059100229027974988 0.0067920592475975211 -0.056233564943090578 -0.0048349906480040644 -0.071513555653177574 0.041170250946586828 -0.012749956914877451 -0.078762035581259604 -0.01900973069715526 0.034352233131797014 0.027188767307502644 0.015253321605778136 -0.065160534618743257 0.0073737864472350331 0.058093280723818669 0.09062970417681511 0.032803303231261419 0.042276642966855613 -0.055352619708410461 -0.0018264826784593865 -0.022621308658177658 0.044246998270300708 -0.035329164648074937 -0.0034574710212144106 -0.026094703207454883
leaf_count=83 480 245 226 123 124 948 151 333 189 199 103 59 33 170 354 255 65 161 185 48 20 93 57 75 76 126 23 392 132 72
internal_value=0 0.25167 0.516861 0.648531 -0.30355 0.959129 0.450172 -0.575422 -0.431434 -0.647751 -0.291137 -0.397977 -0.172072 0.218695 0.34697 0.0757222 -0.555514 -0.425138 -0.260887 0.381001 0.309007 0.0176726 -0.167076 -0.384424 -0.743008 -0.929805 -0.494363 -0.561096 0.320646 -1.18864
internal_count=5600 3995 2694 2325 369 1358 410 1605 1272 858 1301 587 184 967 797 443 188 1066 703 107 205 414 321 264 363 287 498 475 235 271
shrinkage=0.05


Tree=5
num_leaves=31
num_cat=0
split_feature=25 25 26 25 3 5 25 0 22 13 5 22 1 13 0 0 5 9 3 22 5 24 0 24 22 25 24 24 23 26
split_gain=192.89 108.445 69.7511 59.1078 32.762 31.917 23.9368 21.6021 19.7685 18.736 17.1059 16.373 16.008 15.9624 19.2615 15.5682 15.2575 14.9594 14.9247 12.5954 12.415 11.817 10.8994 10.8723 13.1324 10.2666 13.5028 10.2558 11.54 9.95397
threshold=1.1785000000000003 0.59250000000000014 0.77650000000000008 0.98450000000000015 1.5465000000000002 0.8015000000000001 1.4915 1.4035000000000004 1.0105000000000002 0.73250000000000004 1.1815000000000002 0.88150000000000006 0.68150000000000011 0.9405 0.90750000000000008 1.4105000000000001 0.88150000000000006 1.0115000000000001 1.8335000000000004 0.89650000000000007 1.0955000000000001 0.71850000000000014 0.40350000000000003 0.73250000000000004 0.9405 0.74650000000000005 0.75150000000000006 1.0515000000000001 0.98850000000000016 0.88650000000000007
decision_type=2 2 2 2 2 2 2 2 2 2 2 2 2 2 2 2 2 2 2 2 2 2 2 2 2 2 2 2 2 2
left_child=1 13 5 4 7 21 8 16 11 -6 22 27 -9 14 23 -12 25 19 -8 20 -16 -3 -5 24 -1 26 -4 -2 -29 -24
right_child=6 2 3 10 9 -7 18 12 -10 -11 15 -13 -14 -15 17 -17 -18 -19 -20 -21 -22 -23 29 -25 -26 -27 -28 28 -30 -31
leaf_value=-0.046587169200281067 -0.03042250385328801 -0.0087941430618961435 0.068155050660662145 0.043260812055579453 0.038873574330558797 0.019758702390676477 -0.04189663114073873 0.028496265126571413 0.0057204074934285717 -0.012200638452234373 0.045662040532870804 -0.052609988844686588 -0.020816011132065441 -0.00017050800913077392 0.010942769989479764 -0.023702451850464618 0.054817500910836175 0.030413765878151307 -0.092148314306592247 -0.043279421705698415 -0.067507663223120726 -0.048471081074360683 -0.042757869189077861 -0.061493200221684474 0.018257287940461338 0.041525899498657898 0.0020889430227382993 -0.02841342076721462 0.053308463008022861 -0.0068505689074815426
leaf_count=90 106 119 39 35 108 172 618 307 208 224 121 198 86 328 128 45 729 70 66 137 24 204 100 178 48 530 163 30 41 348
internal_value=0 0.210161 0.386299 0.509124 0.668984 -0.307886 -0.680014 0.774345 -0.381653 0.0871953 -0.0228187 -0.656255 0.353689 -0.366302 -0.542276 0.535939 0.887829 -0.224843 -0.93448 -0.425445 -0.0287622 -0.677018 -0.213419 -0.902745 -0.481086 0.682512 0.296217 -0.213576 0.375319 -0.297791
internal_count=5600 4333 3330 2835 2186 495 1267 1854 583 332 649 375 393 1003 675 166 1461 359 684 289 152 323 483 316 138 732 202 177 71 448
shrinkage=0.05


Tree=6
num_leaves=31
num_cat=0
split_feature=27 26 24 22 5 5 22 24 27 26 5 26 24 11 24 22 22 24 8 27 22 22 13 11 27 0 27 26 9 1
split_gain=108.203 113.888 62.4817 71.5572 28.3032 23.192 19.9056 18.0843 18.0196 16.8444 12.4394 13.339 12.1448 12.5263 12.0417 14.0771 11.8962 11.8447 11.7612 11.6419 11.4231 11.0944 11.1553 14.9631 10.2043 10.0992 17.909 10.7772 9.77001 9.28219
threshold=0.90450000000000019 0.81150000000000011 1.0265000000000002 1.0485000000000004 1.3365000000000002 0.88150000000000006 1.0375000000000003 0.73250000000000004 1.0105000000000002 1.3665 0.70450000000000013 0.76750000000000018 0.71050000000000002 0.58150000000000013 2.3415000000000004 1.0465000000000002 1.7005000000000003 0.79350000000000009 1.6300000000000001 0.76050000000000006 0.78850000000000009 0.74450000000000016 1.1485000000000001 -0.96549999999999991 1.0925000000000002 0.77750000000000019 0.83850000000000013 0.90150000000000008 1.3115000000000001 0.65900000000000014
decision_type=2 2 2 2 2 2 2 2 2 2 2 2 2 2 2 2 2 2 2 2 2 2 2 2 2 2 2 2 2 2
left_child=1 4 3 7 10 6 25 24 28 17 11 12 13 -1 15 21 -11 -5 -18 -12 -9 -10 23 -23 -2 -3 -27 -28 -4 -16
right_child=2 5 8 9 -6 -7 -8 20 14 16 19 -13 -14 -15 29 -17 18 -19 -20 -21 -22 22 -24 -25 -26 26 27 -29 -30 -31
leaf_value=0.0032995230748587637 0.011268058191336488 -0.0041744847519354731 0.008913876847150155 0.038585601480803866 0.047580877282157437 0.038698875035779894 0.044372705779222817 -0.023376410768755261 0.026146556963151303 -0.06266528806447566 0.0048018319320429171 0.0020291256574576553 -0.046398978090121001 -0.050802504037295006 -0.070994170282338606 0.0065856733955995117 0.024997454064979333 -0.0042493839944496622 -0.064033786976726681 -0.030174783997138344 -0.070744542218479409 0.031308673960816456 -0.044790385774353077 -0.024415656538543464 -0.058932100230559781 0.031475097704936908 -0.053191143818729927 0.0086010316341241407 0.050129365079039812 0.0094913272743611977
leaf_count=134 54 326 323 97 77 989 211 58 51 68 383 141 282 63 52 458 47 200 22 128 435 64 156 201 34 330 44 81 71 20
internal_value=0 0.251708 -0.31354 -0.692847 -0.231998 0.552723 0.335319 -1.15326 -0.0377304 -0.0747375 -0.311695 -0.502155 -0.661254 -0.280095 -0.180886 -0.119579 -0.657533 0.194527 -0.0688789 -0.0793613 -1.30305 -0.362772 -0.469777 -0.219072 -0.315494 0.187072 0.381773 -0.26667 0.32628 -0.972273
internal_count=5600 3189 2411 1015 1208 1981 992 581 1396 434 1131 620 479 197 1002 930 137 297 69 511 493 472 421 265 88 781 455 125 394 72
shrinkage=0.05


Tree=7
num_leaves=31
num_cat=0
split_feature=25 25 26 27 26 25 27 5 0 3 24 5 1 25 24 5 5 25 3 5 25 23 25 26 3 27 0 13 14 9
split_gain=169.532 95.0873 59.4261 64.0925 37.706 37.8761 29.7951 27.1501 23.4259 21.3961 20.352 18.6691 16.4111 16.3945 14.6388 14.3635 14.2178 13.8572 13.5007 12.7634 12.0453 11.1388 10.5566 11.4773 12.5629 10.5423 16.9164 14.7047 10.2196 10.2029
threshold=1.1785000000000003 0.59250000000000014 0.77650000000000008 0.90450000000000019 0.87350000000000017 0.94550000000000012 0.79050000000000009 0.8015000000000001 1.3475000000000004 1.8335000000000004 0.94450000000000012 0.86950000000000016 -1.6564999999999996 1.4915 1.7695000000000003 1.3365000000000002 0.88650000000000007 1.0025000000000002 2.6165000000000007 1.0315000000000001 0.6785000000000001 1.1195000000000002 0.96950000000000014 0.98550000000000015 1.3345000000000002 0.84050000000000014 0.96350000000000013 1.2365000000000002 0.77350000000000019 1.2680000000000005
decision_type=2 2 2 2 2 2 2 2 2 2 2 2 2 2 2 2 2 2 2 2 2 2 2 2 2 2 2 2 2 2
left_child=1 15 7 4 5 6 -4 -3 11 13 -10 22 -13 16 19 25 21 20 -14 29 -6 -2 23 24 -5 26 27 -1 -8 -12
right_child=9 2 3 8 17 -7 28 -9 10 -11 14 12 18 -15 -16 -17 -18 -19 -20 -21 -22 -23 -24 -25 -26 -27 -28 -29 -30 -31
leaf_value=-0.035398343860508441 -0.041824732628462501 -0.0309643157415804 0.047838378013764532 0.0055449264222773541 0.012483624069613142 -0.029276284457426388 -0.023685758625010114 0.018564603646899401 -0.061994196753216546 -0.074979823596774936 -0.037963011401434661 -0.045149778231851949 0.033709580771500658 -0.039173224629524162 -0.077766114619104293 0.017345409241230399 -0.0013967120902641059 0.024716716365395245 -0.044823479902650155 0.031584975162989797 0.059117299883434005 0.031804648696817144 -0.029926691246848793 0.020041389472716265 -0.084215360083097046 -0.036350630488561096 0.0057080117200592022 0.037209012854827021 0.036442305224711161 0.041790581593789948
leaf_count=297 204 323 335 42 62 135 105 172 78 108 72 31 506 618 23 109 314 185 23 101 751 23 105 195 25 307 259 31 40 21
internal_value=0 0.19749 0.3633 0.477289 0.746066 0.353066 0.622336 -0.278318 0.131671 -0.639023 -0.361281 0.289116 0.521404 -0.559812 -0.0442501 -0.342488 -0.304772 0.993268 0.605067 0.136181 1.10984 -0.68722 -0.0622088 0.153966 -0.562461 -0.425995 -0.268623 -0.571023 -0.142692 -0.400832
internal_count=5600 4333 3330 2835 1613 615 480 495 1222 1267 295 927 560 1159 217 1003 541 998 529 194 813 227 367 262 67 894 587 328 145 93
shrinkage=0.05


Tree=8
num_leaves=31
num_cat=0
split_feature=25 25 26 27 26 25 27 22 5 5 22 0 18 27 22 27 3 25 13 9 27 27 9 3 0 2 13 2 22 5
split_gain=153.633 104.009 57.4521 49.8477 32.756 29.557 28.2859 25.4575 19.6633 19.1353 16.1797 17.1064 17.9493 16.9036 14.3916 18.0345 12.7434 12.623 12.1813 12.1351 11.7211 11.6396 17.7145 14.7392 18.6739 12.3235 11.2885 11.0309 10.7652 10.6978
threshold=1.0675000000000001 0.6695000000000001 0.77650000000000008 0.90450000000000019 0.87150000000000005 1.4915 0.78650000000000009 1.0065000000000002 1.3365000000000002 0.8015000000000001 1.0465000000000002 0.99550000000000016 1.2545000000000002 1.2915000000000001 0.87250000000000016 0.88950000000000007 1.8335000000000004 0.94850000000000012 0.86050000000000015 0.90750000000000008 0.99650000000000005 0.83850000000000013 1.2815000000000001 0.41250000000000003 1.5795000000000001 1.1020000000000001 1.3085000000000002 0.90150000000000008 0.96750000000000014 1.0145000000000002
decision_type=2 2 2 2 2 2 2 2 2 2 2 2 2 2 2 2 2 2 2 2 2 2 2 2 2 2 2 2 2 2
left_child=1 8 9 4 6 7 17 14 21 -3 11 12 -5 28 18 29 -7 -4 -2 -20 -10 22 23 -1 26 27 -25 -23 -13 -16
right_child=5 2 3 10 -6 16 -8 -9 20 -11 -12 13 -14 -15 15 -17 -18 -19 19 -21 -22 25 -24 24 -26 -27 -28 -29 -30 -31
leaf_value=0.021077580105092239 -0.032141078359428851 -0.030787474857073744 0.04707089324527601 0.025018082913893513 0.054176003221229986 -0.037315524757461159 -0.013533431015470271 0.0071864208433718539 0.047169688006767505 0.01652709635451674 0.025611705237204643 -0.022623709315135149 -0.054800174322604339 -0.086485505132199436 -0.030774968050762564 -0.065777284690559754 -0.08439060259058967 -0.010632450462638228 -0.022050065022213277 0.03794817021284827 -0.01107705464304861 -0.026731808732088025 0.052403227674410684 -0.028809867285906045 0.034456767701886083 -0.067320103926141447 0.025505671277097471 0.037776386810157561 0.03347029970732867 0.035407145119752244
leaf_count=112 130 238 270 250 850 618 162 350 86 137 444 150 32 34 119 158 66 45 62 75 59 336 46 493 60 71 42 29 45 31
internal_value=0 0.220506 0.455154 0.577915 0.838108 -0.517093 0.41397 -0.283365 -0.235099 -0.273632 0.229325 -0.0141496 0.317959 -0.422155 -0.543345 -0.839483 -0.834933 0.772155 -0.202353 0.215133 0.465794 -0.319926 -0.168744 -0.246677 -0.372316 -0.58089 -0.491366 -0.432133 -0.19395 -0.342831
internal_count=5600 3991 2657 2282 1327 1609 477 925 1334 375 955 511 282 229 575 308 684 315 267 137 145 1189 753 707 595 436 535 365 195 150
shrinkage=0.05


Tree=9
num_leaves=31
num_cat=0
split_feature=25 25 26 27 26 25 27 5 22 24 3 24 24 25 24 15 13 22 22 27 25 1 11 25 25 5 24 5 9 19
split_gain=139.619 79.5831 49.3995 54.1775 32.4773 32.4259 25.0074 22.4074 21.0063 47.7637 18.7205 17.7999 15.2746 20.4948 13.6507 13.5994 13.1543 12.8973 12.5201 12.4638 12.0663 10.8916 13.1857 10.8185 10.335 10.4793 10.2237 10.0141 9.83044 9.64091
threshold=1.1785000000000003 0.59250000000000014 0.77650000000000008 0.90450000000000019 0.87350000000000017 0.94550000000000012 0.79050000000000009 0.8015000000000001 1.0465000000000002 0.99950000000000017 1.8335000000000004 0.73250000000000004 1.2805000000000002 2.0800000000000005 0.72850000000000015 -1.5714999999999997 0.9405 0.6805000000000001 0.96950000000000014 0.91350000000000009 1.0025000000000002 1.1825000000000003 -0.96549999999999991 0.52350000000000019 0.6785000000000001 0.48450000000000004 0.71850000000000014 1.2405000000000002 1.0065000000000002 -1.2554999999999998
decision_type=2 2 2 2 2 2 2 2 2 2 2 2 2 2 2 2 2 2 2 2 2 2 2 2 2 2 2 2 2 2
left_child=1 16 7 4 5 6 -4 26 9 11 12 -5 13 14 -2 -16 28 -17 -19 23 24 22 -14 -18 -6 -26 -3 -10 -1 -28
right_child=10 2 3 8 20 -7 -8 -9 27 -11 -12 -13 21 -15 15 17 19 18 -20 -21 -22 -23 -24 -25 25 -27 29 -29 -30 -31
leaf_value=-0.029713527040870404 0.013141400406795557 -0.0048514653464248499 0.044294654823137644 0.015060705552007669 0.011745737164143587 -0.027173701844035725 -0.0061694846701946075 0.016945647233194989 0.011087544399115586 0.012884385167891872 -0.069797624594454891 -0.058332053710346443 0.030295954084735083 -0.077251024117676273 0.032990623614766505 0.043221882931955079 0.00051924542776854812 -0.049673918595952798 -0.021788905189662422 -0.026476930850401838 0.022735306237207455 0.053153476484952035 -0.02429353736855552 0.049991761717806435 0.0079003850343481539 0.058271443977055276 0.014107705460097564 0.03996384523286442 0.00067860017150830204 -0.050397812341311882
leaf_count=541 78 119 335 41 62 135 145 172 375 446 108 177 58 92 32 21 154 350 305 111 185 29 194 63 47 704 27 183 134 177
internal_value=0 0.180272 0.333236 0.438087 0.688256 0.322996 0.574826 -0.252697 0.120565 -0.120604 -0.581277 -0.890285 -0.507647 -0.638679 -0.534257 -0.622453 -0.313794 -0.683115 -0.733038 0.0161213 0.921336 -0.10037 -0.23474 0.296876 1.03237 1.10127 -0.563026 0.410361 -0.473954 -0.837079
internal_count=5600 4333 3330 2835 1613 615 480 495 1222 664 1267 218 1159 878 786 708 1003 676 655 328 998 281 252 217 813 751 323 558 675 204
shrinkage=0.05


end of trees

feature importances:
feature_25=42
feature_24=36
feature_27=36
feature_22=31
feature_5=29
feature_26=29
feature_3=19
feature_9=17
feature_0=16
feature_13=10
feature_2=6
feature_1=5
feature_6=4
feature_19=4
feature_11=3
feature_23=3
feature_8=2
feature_14=2
feature_15=2
feature_17=2
feature_10=1
feature_18=1

parameters:
[boosting: gbdt]
[objective: binary]
[metric: binary_logloss]
[tree_learner: serial]
[device_type: cpu]
[data: ]
[valid: ]
[num_iterations: 100]
[learning_rate: 0.05]
[num_leaves: 31]
[num_threads: 0]
[max_depth: -1]
[min_data_in_leaf: 20]
[min_sum_hessian_in_leaf: 0.001]
[bagging_fraction: 0.8]
[bagging_freq: 5]
[bagging_seed: 3]
[feature_fraction: 0.9]
[feature_fraction_seed: 2]
[early_stopping_round: 0]
[max_delta_step: 0]
[lambda_l1: 0]
[lambda_l2: 0]
[min_gain_to_split: 0]
[drop_rate: 0.1]
[max_drop: 50]
[skip_drop: 0.5]
[xgboost_dart_mode: 0]
[uniform_drop: 0]
[drop_seed: 4]
[top_rate: 0.2]
[other_rate: 0.1]
[min_data_per_group: 100]
[max_cat_threshold: 32]
[cat_l2: 10]
[cat_smooth: 10]
[max_cat_to_onehot: 4]
[top_k: 20]
[monotone_constraints: ]
[feature_contri: ]
[forcedsplits_filename: ]
[refit_decay_rate: 0.9]
[cegb_tradeoff: 1]
[cegb_penalty_split: 0]
[cegb_penalty_feature_lazy: ]
[cegb_penalty_feature_coupled: ]
[verbosity: 0]
[max_bin: 255]
[min_data_in_bin: 3]
[bin_construct_sample_cnt: 200000]
[histogram_pool_size: -1]
[data_random_seed: 1]
[output_model: LightGBM_model.txt]
[snapshot_freq: -1]
[input_model: ]
[output_result: LightGBM_predict_result.txt]
[initscore_filename: ]
[valid_data_initscores: ]
[pre_partition: 0]
[enable_bundle: 1]
[max_conflict_rate: 0]
[is_enable_sparse: 1]
[sparse_threshold: 0.8]
[use_missing: 1]
[zero_as_missing: 0]
[two_round: 0]
[save_binary: 0]
[header: 0]
[label_column: ]
[weight_column: ]
[group_column: ]
[ignore_column: ]
[categorical_feature: ]
[predict_raw_score: 0]
[predict_leaf_index: 0]
[predict_contrib: 0]
[num_iteration_predict: -1]
[pred_early_stop: 0]
[pred_early_stop_freq: 10]
[pred_early_stop_margin: 10]
[convert_model_language: ]
[convert_model: gbdt_prediction.cpp]
[num_class: 1]
[is_unbalance: 0]
[scale_pos_weight: 1]
[sigmoid: 1]
[boost_from_average: 1]
[reg_sqrt: 0]
[alpha: 0.9]
[fair_c: 1]
[poisson_max_delta_step: 0.7]
[tweedie_variance_power: 1.5]
[max_position: 20]
[label_gain: ]
[metric_freq: 1]
[is_provide_training_metric: 0]
[eval_at: ]
[num_machines: 1]
[local_listen_port: 12400]
[time_out: 120]
[machine_list_filename: ]
[machines: ]
[gpu_platform_id: -1]
[gpu_device_id: -1]
[gpu_use_dp: 0]

end of parameters

pandas_categorical:[]
